<?xml version="1.0"?>
<opencv_storage>
<cascade>
  <stageType>BOOST</stageType>
  <featureType>HAAR</featureType>
  <height>30</height>
  <width>30</width>
  <stageParams>
    <boostType>GAB</boostType>
    <minHitRate>9.9500000476837158e-01</minHitRate>
    <maxFalseAlarm>5.0000000000000000e-01</maxFalseAlarm>
    <weightTrimRate>9.4999998807907104e-01</weightTrimRate>
    <maxDepth>1</maxDepth>
    <maxWeakCount>100</maxWeakCount></stageParams>
  <featureParams>
    <maxCatCount>0</maxCatCount>
    <featSize>1</featSize>
    <mode>BASIC</mode></featureParams>
  <stageNum>7</stageNum>
  <stages>
    <!-- stage 0 -->
    <_>
      <maxWeakCount>15</maxWeakCount>
      <stageThreshold>-1.0216294527053833e+00</stageThreshold>
      <weakClassifiers>
        <_>
          <internalNodes>
            0 -1 0 -9.6463933587074280e-02</internalNodes>
          <leafValues>
            6.2987011671066284e-01 -1.1868686974048615e-01</leafValues></_>
        <_>
          <internalNodes>
            0 -1 1 -6.1874002218246460e-02</internalNodes>
          <leafValues>
            7.5398182868957520e-01 -1.1909296363592148e-01</leafValues></_>
        <_>
          <internalNodes>
            0 -1 50 -4.8030622303485870e-02</internalNodes>
          <leafValues>
            5.1176553964614868e-01 -2.0644679665565491e-01</leafValues></_>
        <_>
          <internalNodes>
            0 -1 69 -1.9379254081286490e-04</internalNodes>
          <leafValues>
            -4.0639293193817139e-01 2.5173100829124451e-01</leafValues></_>
        <_>
          <internalNodes>
            0 -1 12 -3.5148864844813943e-04</internalNodes>
          <leafValues>
            -6.3882720470428467e-01 1.3328915834426880e-01</leafValues></_>
        <_>
          <internalNodes>
            0 -1 13 -4.7234422527253628e-04</internalNodes>
          <leafValues>
            -4.3374815583229065e-01 1.8296077847480774e-01</leafValues></_>
        <_>
          <internalNodes>
            0 -1 24 1.3669770956039429e-01</internalNodes>
          <leafValues>
            -1.1810676008462906e-01 7.0628285408020020e-01</leafValues></_>
        <_>
          <internalNodes>
            0 -1 21 -1.1531937122344971e-01</internalNodes>
          <leafValues>
            4.3421101570129395e-01 -2.3611186444759369e-01</leafValues></_>
        <_>
          <internalNodes>
            0 -1 71 1.8560810713097453e-04</internalNodes>
          <leafValues>
            2.5955983996391296e-01 -4.4226804375648499e-01</leafValues></_>
        <_>
          <internalNodes>
            0 -1 63 -1.8735213670879602e-03</internalNodes>
          <leafValues>
            -4.2868247628211975e-01 1.9907267391681671e-01</leafValues></_>
        <_>
          <internalNodes>
            0 -1 52 -4.1385402437299490e-04</internalNodes>
          <leafValues>
            -6.0877519845962524e-01 1.6264885663986206e-01</leafValues></_>
        <_>
          <internalNodes>
            0 -1 5 -8.2314852625131607e-03</internalNodes>
          <leafValues>
            4.7742670774459839e-01 -1.9557972252368927e-01</leafValues></_>
        <_>
          <internalNodes>
            0 -1 39 -1.7818047106266022e-01</internalNodes>
          <leafValues>
            9.0513539314270020e-01 -6.6484794020652771e-02</leafValues></_>
        <_>
          <internalNodes>
            0 -1 22 -3.9165891706943512e-02</internalNodes>
          <leafValues>
            5.1409339904785156e-01 -1.4021536707878113e-01</leafValues></_>
        <_>
          <internalNodes>
            0 -1 3 4.0206208359450102e-04</internalNodes>
          <leafValues>
            2.3618246614933014e-01 -3.7859624624252319e-01</leafValues></_></weakClassifiers></_>
    <!-- stage 1 -->
    <_>
      <maxWeakCount>17</maxWeakCount>
      <stageThreshold>-1.0931699275970459e+00</stageThreshold>
      <weakClassifiers>
        <_>
          <internalNodes>
            0 -1 2 2.8906663646921515e-04</internalNodes>
          <leafValues>
            2.8426396846771240e-01 -3.9743590354919434e-01</leafValues></_>
        <_>
          <internalNodes>
            0 -1 15 -3.8735137786716223e-04</internalNodes>
          <leafValues>
            -4.1465920209884644e-01 2.1951478719711304e-01</leafValues></_>
        <_>
          <internalNodes>
            0 -1 35 -1.7242559790611267e-01</internalNodes>
          <leafValues>
            7.0487296581268311e-01 -1.2021217495203018e-01</leafValues></_>
        <_>
          <internalNodes>
            0 -1 17 -1.1096179485321045e-01</internalNodes>
          <leafValues>
            7.6912152767181396e-01 -1.9015410542488098e-01</leafValues></_>
        <_>
          <internalNodes>
            0 -1 68 -5.9531826991587877e-05</internalNodes>
          <leafValues>
            -3.2065784931182861e-01 2.8884679079055786e-01</leafValues></_>
        <_>
          <internalNodes>
            0 -1 43 -2.7544580399990082e-02</internalNodes>
          <leafValues>
            6.1930859088897705e-01 -1.5020711719989777e-01</leafValues></_>
        <_>
          <internalNodes>
            0 -1 7 -1.9600875384639949e-04</internalNodes>
          <leafValues>
            -2.3728062212467194e-01 3.3987003564834595e-01</leafValues></_>
        <_>
          <internalNodes>
            0 -1 57 -6.1312818434089422e-04</internalNodes>
          <leafValues>
            3.7542060017585754e-01 -2.3666596412658691e-01</leafValues></_>
        <_>
          <internalNodes>
            0 -1 28 -9.3159452080726624e-04</internalNodes>
          <leafValues>
            -4.8738557100296021e-01 2.1094855666160583e-01</leafValues></_>
        <_>
          <internalNodes>
            0 -1 19 -1.4617826789617538e-02</internalNodes>
          <leafValues>
            7.8574383258819580e-01 -1.5465851128101349e-01</leafValues></_>
        <_>
          <internalNodes>
            0 -1 67 -3.6544684553518891e-04</internalNodes>
          <leafValues>
            -3.3859315514564514e-01 2.7958235144615173e-01</leafValues></_>
        <_>
          <internalNodes>
            0 -1 11 1.0413925629109144e-03</internalNodes>
          <leafValues>
            1.9997085630893707e-01 -4.8837178945541382e-01</leafValues></_>
        <_>
          <internalNodes>
            0 -1 38 -1.3452828861773014e-02</internalNodes>
          <leafValues>
            8.3718186616897583e-01 -1.3520577549934387e-01</leafValues></_>
        <_>
          <internalNodes>
            0 -1 16 -1.3323968276381493e-02</internalNodes>
          <leafValues>
            9.1646933555603027e-01 -8.1282913684844971e-02</leafValues></_>
        <_>
          <internalNodes>
            0 -1 26 -4.5588985085487366e-02</internalNodes>
          <leafValues>
            4.9408257007598877e-01 -1.4768989384174347e-01</leafValues></_>
        <_>
          <internalNodes>
            0 -1 40 4.6808026731014252e-02</internalNodes>
          <leafValues>
            -1.8220362067222595e-01 5.0179010629653931e-01</leafValues></_>
        <_>
          <internalNodes>
            0 -1 37 9.1726623941212893e-04</internalNodes>
          <leafValues>
            1.9765080511569977e-01 -4.2694959044456482e-01</leafValues></_></weakClassifiers></_>
    <!-- stage 2 -->
    <_>
      <maxWeakCount>15</maxWeakCount>
      <stageThreshold>-1.1616666316986084e+00</stageThreshold>
      <weakClassifiers>
        <_>
          <internalNodes>
            0 -1 4 -5.3470389684662223e-04</internalNodes>
          <leafValues>
            -3.3681461215019226e-01 3.1938633322715759e-01</leafValues></_>
        <_>
          <internalNodes>
            0 -1 18 7.4519053101539612e-02</internalNodes>
          <leafValues>
            -1.3563352823257446e-01 7.9180693626403809e-01</leafValues></_>
        <_>
          <internalNodes>
            0 -1 36 8.4565170109272003e-03</internalNodes>
          <leafValues>
            -2.4062830209732056e-01 4.9176210165023804e-01</leafValues></_>
        <_>
          <internalNodes>
            0 -1 6 -6.7017471883445978e-04</internalNodes>
          <leafValues>
            -3.9252725243568420e-01 3.1254208087921143e-01</leafValues></_>
        <_>
          <internalNodes>
            0 -1 20 -3.0131558887660503e-03</internalNodes>
          <leafValues>
            -5.6461483240127563e-01 1.8303622305393219e-01</leafValues></_>
        <_>
          <internalNodes>
            0 -1 70 -7.2618742706254125e-04</internalNodes>
          <leafValues>
            -4.0672209858894348e-01 2.9268747568130493e-01</leafValues></_>
        <_>
          <internalNodes>
            0 -1 34 -5.1969999913126230e-04</internalNodes>
          <leafValues>
            -2.9417291283607483e-01 3.9786842465400696e-01</leafValues></_>
        <_>
          <internalNodes>
            0 -1 10 2.4551048409193754e-04</internalNodes>
          <leafValues>
            2.8256782889366150e-01 -4.9166506528854370e-01</leafValues></_>
        <_>
          <internalNodes>
            0 -1 60 -2.8991358703933656e-04</internalNodes>
          <leafValues>
            -4.4293323159217834e-01 2.3897841572761536e-01</leafValues></_>
        <_>
          <internalNodes>
            0 -1 42 -1.0353482514619827e-01</internalNodes>
          <leafValues>
            6.1075645685195923e-01 -1.8811695277690887e-01</leafValues></_>
        <_>
          <internalNodes>
            0 -1 54 5.2820313721895218e-03</internalNodes>
          <leafValues>
            -2.1160867810249329e-01 5.6080251932144165e-01</leafValues></_>
        <_>
          <internalNodes>
            0 -1 56 8.0951256677508354e-04</internalNodes>
          <leafValues>
            2.2168226540088654e-01 -5.8293247222900391e-01</leafValues></_>
        <_>
          <internalNodes>
            0 -1 48 1.9794106483459473e-03</internalNodes>
          <leafValues>
            -2.4523214995861053e-01 5.6220477819442749e-01</leafValues></_>
        <_>
          <internalNodes>
            0 -1 27 8.9108496904373169e-02</internalNodes>
          <leafValues>
            -1.3433666527271271e-01 7.1922582387924194e-01</leafValues></_>
        <_>
          <internalNodes>
            0 -1 9 -3.4737359732389450e-02</internalNodes>
          <leafValues>
            4.7936594486236572e-01 -2.4465826153755188e-01</leafValues></_></weakClassifiers></_>
    <!-- stage 3 -->
    <_>
      <maxWeakCount>11</maxWeakCount>
      <stageThreshold>-1.2620276212692261e+00</stageThreshold>
      <weakClassifiers>
        <_>
          <internalNodes>
            0 -1 64 -7.3235784657299519e-04</internalNodes>
          <leafValues>
            -5.3571426868438721e-01 3.0487805604934692e-01</leafValues></_>
        <_>
          <internalNodes>
            0 -1 30 2.8264016145840287e-04</internalNodes>
          <leafValues>
            4.2886793613433838e-01 -3.6295801401138306e-01</leafValues></_>
        <_>
          <internalNodes>
            0 -1 44 9.1656678705476224e-05</internalNodes>
          <leafValues>
            -2.8903231024742126e-01 5.5393266677856445e-01</leafValues></_>
        <_>
          <internalNodes>
            0 -1 46 2.0968005992472172e-04</internalNodes>
          <leafValues>
            3.5596701502799988e-01 -4.7859942913055420e-01</leafValues></_>
        <_>
          <internalNodes>
            0 -1 41 2.2747698239982128e-03</internalNodes>
          <leafValues>
            -3.0177435278892517e-01 6.1619049310684204e-01</leafValues></_>
        <_>
          <internalNodes>
            0 -1 53 -1.2271838204469532e-04</internalNodes>
          <leafValues>
            -4.4124543666839600e-01 4.3664598464965820e-01</leafValues></_>
        <_>
          <internalNodes>
            0 -1 31 -9.8742987029254436e-04</internalNodes>
          <leafValues>
            7.5593030452728271e-01 -2.4075309932231903e-01</leafValues></_>
        <_>
          <internalNodes>
            0 -1 32 8.5452018538489938e-04</internalNodes>
          <leafValues>
            4.4404771924018860e-01 -5.1932936906814575e-01</leafValues></_>
        <_>
          <internalNodes>
            0 -1 51 6.3465433195233345e-03</internalNodes>
          <leafValues>
            -2.9079321026802063e-01 8.1949716806411743e-01</leafValues></_>
        <_>
          <internalNodes>
            0 -1 61 3.4634172916412354e-03</internalNodes>
          <leafValues>
            -2.8822955489158630e-01 5.7730609178543091e-01</leafValues></_>
        <_>
          <internalNodes>
            0 -1 49 -3.3091870136559010e-03</internalNodes>
          <leafValues>
            8.5703021287918091e-01 -1.9545939564704895e-01</leafValues></_></weakClassifiers></_>
    <!-- stage 4 -->
    <_>
      <maxWeakCount>7</maxWeakCount>
      <stageThreshold>-1.5252221822738647e+00</stageThreshold>
      <weakClassifiers>
        <_>
          <internalNodes>
            0 -1 55 5.5742755648680031e-05</internalNodes>
          <leafValues>
            -2.0481927692890167e-01 1.</leafValues></_>
        <_>
          <internalNodes>
            0 -1 29 4.6733301132917404e-04</internalNodes>
          <leafValues>
            5.9822666645050049e-01 -3.1721135973930359e-01</leafValues></_>
        <_>
          <internalNodes>
            0 -1 58 4.2731221765279770e-04</internalNodes>
          <leafValues>
            5.4684954881668091e-01 -5.5393117666244507e-01</leafValues></_>
        <_>
          <internalNodes>
            0 -1 33 -2.4741073139011860e-03</internalNodes>
          <leafValues>
            -5.5852758884429932e-01 5.2564680576324463e-01</leafValues></_>
        <_>
          <internalNodes>
            0 -1 62 2.9927279683761299e-04</internalNodes>
          <leafValues>
            -3.7053686380386353e-01 7.3281115293502808e-01</leafValues></_>
        <_>
          <internalNodes>
            0 -1 66 -1.3442863710224628e-03</internalNodes>
          <leafValues>
            8.7067520618438721e-01 -2.8446412086486816e-01</leafValues></_>
        <_>
          <internalNodes>
            0 -1 23 -1.7400197684764862e-03</internalNodes>
          <leafValues>
            -3.9087110757827759e-01 6.7488455772399902e-01</leafValues></_></weakClassifiers></_>
    <!-- stage 5 -->
    <_>
      <maxWeakCount>5</maxWeakCount>
      <stageThreshold>-8.7806838750839233e-01</stageThreshold>
      <weakClassifiers>
        <_>
          <internalNodes>
            0 -1 8 -4.7445198288187385e-04</internalNodes>
          <leafValues>
            -4.4508671760559082e-01 1.</leafValues></_>
        <_>
          <internalNodes>
            0 -1 59 1.7770664271665737e-05</internalNodes>
          <leafValues>
            1. -2.9061913490295410e-01</leafValues></_>
        <_>
          <internalNodes>
            0 -1 45 -3.5935947380494326e-05</internalNodes>
          <leafValues>
            -2.9363802075386047e-01 1.</leafValues></_>
        <_>
          <internalNodes>
            0 -1 14 3.9647100493311882e-04</internalNodes>
          <leafValues>
            8.0714327096939087e-01 -4.7145667672157288e-01</leafValues></_>
        <_>
          <internalNodes>
            0 -1 25 1.1074735084548593e-03</internalNodes>
          <leafValues>
            7.0546478033065796e-01 -6.6788703203201294e-01</leafValues></_></weakClassifiers></_>
    <!-- stage 6 -->
    <_>
      <maxWeakCount>2</maxWeakCount>
      <stageThreshold>6.9498069584369659e-02</stageThreshold>
      <weakClassifiers>
        <_>
          <internalNodes>
            0 -1 47 2.6658031344413757e-01</internalNodes>
          <leafValues>
            1. -9.3050193786621094e-01</leafValues></_>
        <_>
          <internalNodes>
            0 -1 65 4.6517071314156055e-03</internalNodes>
          <leafValues>
            1. -9.0783417224884033e-01</leafValues></_></weakClassifiers></_></stages>
  <features>
    <_>
      <rects>
        <_>
          0 0 18 30 -1.</_>
        <_>
          9 0 9 30 2.</_></rects>
      <tilted>0</tilted></_>
    <_>
      <rects>
        <_>
          0 2 8 25 -1.</_>
        <_>
          4 2 4 25 2.</_></rects>
      <tilted>0</tilted></_>
    <_>
      <rects>
        <_>
          0 3 2 3 -1.</_>
        <_>
          1 3 1 3 2.</_></rects>
      <tilted>0</tilted></_>
    <_>
      <rects>
        <_>
          0 3 4 2 -1.</_>
        <_>
          2 3 2 2 2.</_></rects>
      <tilted>0</tilted></_>
    <_>
      <rects>
        <_>
          0 7 2 4 -1.</_>
        <_>
          0 9 2 2 2.</_></rects>
      <tilted>0</tilted></_>
    <_>
      <rects>
        <_>
          0 7 6 13 -1.</_>
        <_>
          2 7 2 13 3.</_></rects>
      <tilted>0</tilted></_>
    <_>
      <rects>
        <_>
          0 12 1 9 -1.</_>
        <_>
          0 15 1 3 3.</_></rects>
      <tilted>0</tilted></_>
    <_>
      <rects>
        <_>
          0 14 2 6 -1.</_>
        <_>
          0 17 2 3 2.</_></rects>
      <tilted>0</tilted></_>
    <_>
      <rects>
        <_>
          0 17 1 9 -1.</_>
        <_>
          0 20 1 3 3.</_></rects>
      <tilted>0</tilted></_>
    <_>
      <rects>
        <_>
          0 20 21 9 -1.</_>
        <_>
          7 20 7 9 3.</_></rects>
      <tilted>0</tilted></_>
    <_>
      <rects>
        <_>
          0 21 1 4 -1.</_>
        <_>
          0 23 1 2 2.</_></rects>
      <tilted>0</tilted></_>
    <_>
      <rects>
        <_>
          0 21 3 4 -1.</_>
        <_>
          1 21 1 4 3.</_></rects>
      <tilted>0</tilted></_>
    <_>
      <rects>
        <_>
          0 22 1 2 -1.</_>
        <_>
          0 23 1 1 2.</_></rects>
      <tilted>0</tilted></_>
    <_>
      <rects>
        <_>
          0 22 4 2 -1.</_>
        <_>
          0 22 2 1 2.</_>
        <_>
          2 23 2 1 2.</_></rects>
      <tilted>0</tilted></_>
    <_>
      <rects>
        <_>
          0 23 3 2 -1.</_>
        <_>
          0 24 3 1 2.</_></rects>
      <tilted>0</tilted></_>
    <_>
      <rects>
        <_>
          0 24 1 4 -1.</_>
        <_>
          0 26 1 2 2.</_></rects>
      <tilted>0</tilted></_>
    <_>
      <rects>
        <_>
          1 3 12 2 -1.</_>
        <_>
          5 3 4 2 3.</_></rects>
      <tilted>0</tilted></_>
    <_>
      <rects>
        <_>
          1 3 15 23 -1.</_>
        <_>
          6 3 5 23 3.</_></rects>
      <tilted>0</tilted></_>
    <_>
      <rects>
        <_>
          1 12 24 12 -1.</_>
        <_>
          1 18 24 6 2.</_></rects>
      <tilted>0</tilted></_>
    <_>
      <rects>
        <_>
          1 13 6 8 -1.</_>
        <_>
          3 13 2 8 3.</_></rects>
      <tilted>0</tilted></_>
    <_>
      <rects>
        <_>
          1 17 10 3 -1.</_>
        <_>
          1 18 10 1 3.</_></rects>
      <tilted>0</tilted></_>
    <_>
      <rects>
        <_>
          3 2 24 26 -1.</_>
        <_>
          11 2 8 26 3.</_></rects>
      <tilted>0</tilted></_>
    <_>
      <rects>
        <_>
          3 2 24 12 -1.</_>
        <_>
          3 6 24 4 3.</_></rects>
      <tilted>0</tilted></_>
    <_>
      <rects>
        <_>
          3 4 2 24 -1.</_>
        <_>
          3 4 1 12 2.</_>
        <_>
          4 16 1 12 2.</_></rects>
      <tilted>0</tilted></_>
    <_>
      <rects>
        <_>
          3 10 27 10 -1.</_>
        <_>
          12 10 9 10 3.</_></rects>
      <tilted>0</tilted></_>
    <_>
      <rects>
        <_>
          3 13 1 6 -1.</_>
        <_>
          3 15 1 2 3.</_></rects>
      <tilted>0</tilted></_>
    <_>
      <rects>
        <_>
          3 14 24 9 -1.</_>
        <_>
          11 14 8 9 3.</_></rects>
      <tilted>0</tilted></_>
    <_>
      <rects>
        <_>
          4 7 18 20 -1.</_>
        <_>
          10 7 6 20 3.</_></rects>
      <tilted>0</tilted></_>
    <_>
      <rects>
        <_>
          4 21 1 4 -1.</_>
        <_>
          4 23 1 2 2.</_></rects>
      <tilted>0</tilted></_>
    <_>
      <rects>
        <_>
          5 0 2 13 -1.</_>
        <_>
          6 0 1 13 2.</_></rects>
      <tilted>0</tilted></_>
    <_>
      <rects>
        <_>
          5 2 2 8 -1.</_>
        <_>
          6 2 1 8 2.</_></rects>
      <tilted>0</tilted></_>
    <_>
      <rects>
        <_>
          5 2 9 3 -1.</_>
        <_>
          5 3 9 1 3.</_></rects>
      <tilted>0</tilted></_>
    <_>
      <rects>
        <_>
          5 10 3 2 -1.</_>
        <_>
          6 10 1 2 3.</_></rects>
      <tilted>0</tilted></_>
    <_>
      <rects>
        <_>
          5 12 2 14 -1.</_>
        <_>
          6 12 1 14 2.</_></rects>
      <tilted>0</tilted></_>
    <_>
      <rects>
        <_>
          5 19 4 10 -1.</_>
        <_>
          5 24 4 5 2.</_></rects>
      <tilted>0</tilted></_>
    <_>
      <rects>
        <_>
          6 2 24 25 -1.</_>
        <_>
          14 2 8 25 3.</_></rects>
      <tilted>0</tilted></_>
    <_>
      <rects>
        <_>
          6 8 12 9 -1.</_>
        <_>
          6 11 12 3 3.</_></rects>
      <tilted>0</tilted></_>
    <_>
      <rects>
        <_>
          6 28 6 2 -1.</_>
        <_>
          8 28 2 2 3.</_></rects>
      <tilted>0</tilted></_>
    <_>
      <rects>
        <_>
          7 2 15 2 -1.</_>
        <_>
          12 2 5 2 3.</_></rects>
      <tilted>0</tilted></_>
    <_>
      <rects>
        <_>
          8 4 21 17 -1.</_>
        <_>
          15 4 7 17 3.</_></rects>
      <tilted>0</tilted></_>
    <_>
      <rects>
        <_>
          8 10 18 9 -1.</_>
        <_>
          14 10 6 9 3.</_></rects>
      <tilted>0</tilted></_>
    <_>
      <rects>
        <_>
          8 10 12 6 -1.</_>
        <_>
          8 12 12 2 3.</_></rects>
      <tilted>0</tilted></_>
    <_>
      <rects>
        <_>
          9 0 21 26 -1.</_>
        <_>
          16 0 7 26 3.</_></rects>
      <tilted>0</tilted></_>
    <_>
      <rects>
        <_>
          9 0 8 12 -1.</_>
        <_>
          9 4 8 4 3.</_></rects>
      <tilted>0</tilted></_>
    <_>
      <rects>
        <_>
          11 5 3 5 -1.</_>
        <_>
          12 5 1 5 3.</_></rects>
      <tilted>0</tilted></_>
    <_>
      <rects>
        <_>
          11 27 3 2 -1.</_>
        <_>
          12 27 1 2 3.</_></rects>
      <tilted>0</tilted></_>
    <_>
      <rects>
        <_>
          13 0 2 2 -1.</_>
        <_>
          13 1 2 1 2.</_></rects>
      <tilted>0</tilted></_>
    <_>
      <rects>
        <_>
          14 0 12 28 -1.</_>
        <_>
          14 14 12 14 2.</_></rects>
      <tilted>0</tilted></_>
    <_>
      <rects>
        <_>
          14 2 12 1 -1.</_>
        <_>
          18 2 4 1 3.</_></rects>
      <tilted>0</tilted></_>
    <_>
      <rects>
        <_>
          14 4 5 6 -1.</_>
        <_>
          14 6 5 2 3.</_></rects>
      <tilted>0</tilted></_>
    <_>
      <rects>
        <_>
          15 0 15 21 -1.</_>
        <_>
          20 0 5 21 3.</_></rects>
      <tilted>0</tilted></_>
    <_>
      <rects>
        <_>
          15 2 2 15 -1.</_>
        <_>
          15 7 2 5 3.</_></rects>
      <tilted>0</tilted></_>
    <_>
      <rects>
        <_>
          15 28 1 2 -1.</_>
        <_>
          15 29 1 1 2.</_></rects>
      <tilted>0</tilted></_>
    <_>
      <rects>
        <_>
          15 28 2 2 -1.</_>
        <_>
          15 29 2 1 2.</_></rects>
      <tilted>0</tilted></_>
    <_>
      <rects>
        <_>
          16 0 6 16 -1.</_>
        <_>
          18 0 2 16 3.</_></rects>
      <tilted>0</tilted></_>
    <_>
      <rects>
        <_>
          17 12 2 2 -1.</_>
        <_>
          17 12 1 1 2.</_>
        <_>
          18 13 1 1 2.</_></rects>
      <tilted>0</tilted></_>
    <_>
      <rects>
        <_>
          17 28 4 2 -1.</_>
        <_>
          17 28 2 1 2.</_>
        <_>
          19 29 2 1 2.</_></rects>
      <tilted>0</tilted></_>
    <_>
      <rects>
        <_>
          19 16 8 1 -1.</_>
        <_>
          23 16 4 1 2.</_></rects>
      <tilted>0</tilted></_>
    <_>
      <rects>
        <_>
          19 27 6 2 -1.</_>
        <_>
          19 27 3 1 2.</_>
        <_>
          22 28 3 1 2.</_></rects>
      <tilted>0</tilted></_>
    <_>
      <rects>
        <_>
          20 4 3 1 -1.</_>
        <_>
          21 4 1 1 3.</_></rects>
      <tilted>0</tilted></_>
    <_>
      <rects>
        <_>
          20 8 1 3 -1.</_>
        <_>
          20 9 1 1 3.</_></rects>
      <tilted>0</tilted></_>
    <_>
      <rects>
        <_>
          20 8 10 3 -1.</_>
        <_>
          25 8 5 3 2.</_></rects>
      <tilted>0</tilted></_>
    <_>
      <rects>
        <_>
          20 24 8 6 -1.</_>
        <_>
          24 24 4 6 2.</_></rects>
      <tilted>0</tilted></_>
    <_>
      <rects>
        <_>
          20 25 10 4 -1.</_>
        <_>
          20 27 10 2 2.</_></rects>
      <tilted>0</tilted></_>
    <_>
      <rects>
        <_>
          21 27 2 2 -1.</_>
        <_>
          22 27 1 2 2.</_></rects>
      <tilted>0</tilted></_>
    <_>
      <rects>
        <_>
          24 15 6 3 -1.</_>
        <_>
          24 16 6 1 3.</_></rects>
      <tilted>0</tilted></_>
    <_>
      <rects>
        <_>
          24 22 6 8 -1.</_>
        <_>
          24 22 3 4 2.</_>
        <_>
          27 26 3 4 2.</_></rects>
      <tilted>0</tilted></_>
    <_>
      <rects>
        <_>
          24 22 4 2 -1.</_>
        <_>
          24 23 4 1 2.</_></rects>
      <tilted>0</tilted></_>
    <_>
      <rects>
        <_>
          24 27 1 2 -1.</_>
        <_>
          24 28 1 1 2.</_></rects>
      <tilted>0</tilted></_>
    <_>
      <rects>
        <_>
          25 25 2 2 -1.</_>
        <_>
          25 26 2 1 2.</_></rects>
      <tilted>0</tilted></_>
    <_>
      <rects>
        <_>
          27 19 1 6 -1.</_>
        <_>
          27 22 1 3 2.</_></rects>
      <tilted>0</tilted></_>
    <_>
      <rects>
        <_>
          29 3 1 2 -1.</_>
        <_>
          29 4 1 1 2.</_></rects>
      <tilted>0</tilted></_></features></cascade>
</opencv_storage>
